{
  "runId": "paper26-real-slice-001",
  "epoch": 3,
  "weights": {
    "W1": [
      -0.05269298702478409,
      0.2913014590740204,
      -0.2926667332649231,
      -0.17630381882190704,
      -0.07053336501121521,
      0.21796779334545135,
      -0.17793363332748413,
      0.30671223998069763,
      0.2089448869228363,
      -0.12315402925014496,
      -0.06249131262302399,
      -0.14194251596927643,
      -0.30331704020500183,
      -0.14578601717948914,
      0.005747408606112003,
      -0.3003438115119934,
      -0.12217071652412415,
      -0.10102210938930511,
      -0.20092642307281494,
      0.019286785274744034,
      0.043193086981773376,
      -0.15887027978897095,
      0.15748365223407745,
      -0.11739197373390198,
      -0.15850569307804108,
      -0.1364557296037674,
      -0.059452034533023834,
      -0.19590787589550018,
      0.031215164810419083,
      -0.1792306900024414,
      -0.11991437524557114,
      0.10879357904195786,
      0.05843913182616234,
      -0.013600800186395645,
      0.022433076053857803,
      -0.24080485105514526,
      0.09955406934022903,
      0.07663686573505402,
      -0.2568485140800476,
      -0.152969092130661,
      0.18687786161899567,
      -0.1196826696395874,
      -0.011701207607984543,
      0.2967122495174408,
      -0.05487760528922081,
      -0.07586361467838287,
      -0.03496035933494568,
      -0.011415977962315083,
      0.09490374475717545,
      0.12748591601848602,
      0.26860228180885315,
      -0.08339134603738785,
      0.0806092917919159,
      0.25151124596595764,
      -0.07506094127893448,
      0.29881173372268677,
      0.2520681917667389,
      -0.2194357067346573,
      0.2847824990749359,
      -0.20676371455192566,
      0.11128614842891693,
      0.09198466688394547,
      -0.2300512045621872,
      0.07062266767024994,
      0.10500755906105042,
      -0.08840061724185944,
      0.3132745325565338,
      0.1794782131910324,
      0.05550462380051613,
      -0.12378833442926407,
      -0.3100224733352661,
      0.08236995339393616,
      0.1292179524898529,
      -0.07276895642280579,
      -0.24756669998168945,
      0.012699155136942863,
      0.281698077917099,
      -0.01915697753429413,
      0.02274109050631523,
      0.16808539628982544,
      -0.03248874470591545,
      -0.0682464987039566,
      0.014288198202848434,
      -0.2774977684020996,
      0.06188669055700302,
      0.26530101895332336,
      0.29149121046066284,
      -0.010480042546987534,
      0.2446189522743225,
      0.2836552858352661,
      0.024473784491419792,
      0.2832809090614319,
      -0.19866985082626343,
      -0.03568853810429573,
      -0.2947021722793579,
      -0.15228725969791412,
      -0.16397805511951447,
      0.24300441145896912,
      0.14172467589378357,
      -0.22352275252342224,
      -0.012682546861469746,
      -0.1664416491985321,
      -0.24565990269184113,
      0.2691771984100342,
      -0.024794399738311768,
      0.13686735928058624,
      -0.04954245314002037,
      0.11165732890367508,
      0.019371245056390762,
      0.22390635311603546,
      0.04582919552922249,
      -0.265750527381897,
      0.020407697185873985,
      0.08575118333101273,
      0.045728590339422226,
      -0.12690682709217072,
      0.08314432948827744,
      0.14383475482463837,
      0.029673030599951744,
      0.03443130478262901,
      0.05979163199663162,
      -0.2817426025867462,
      0.22110022604465485,
      -0.14501599967479706,
      -0.25654682517051697,
      -0.16009443998336792,
      0.2893278896808624,
      0.2850620448589325,
      0.23575665056705475,
      0.1388586163520813,
      -0.2484833151102066,
      -0.2181716114282608,
      0.21345923840999603,
      -0.06174560263752937,
      0.23555926978588104,
      -0.16810347139835358,
      -0.04933738335967064,
      -0.07312382757663727,
      -0.2288113534450531,
      0.1279691755771637,
      0.18070943653583527,
      0.3093823492527008,
      -0.2074219137430191,
      -0.06769967079162598,
      0.11624708026647568,
      -0.28686413168907166,
      0.15702027082443237,
      0.1819337159395218,
      -0.26348677277565,
      -0.07884058356285095,
      0.016908450052142143,
      -0.21612627804279327,
      0.22481262683868408,
      0.1553691029548645,
      -0.2280435562133789,
      -0.0549643337726593,
      -0.24045446515083313,
      0.2098618745803833,
      0.11916432529687881,
      0.18207049369812012,
      -0.27098244428634644,
      0.26937028765678406,
      0.06824985146522522,
      0.17213879525661469,
      -0.0840468555688858,
      -0.047411467880010605,
      -0.2568870186805725,
      0.2603343427181244,
      -0.06446328014135361,
      -0.08935639262199402,
      0.03399312496185303,
      -0.07787301391363144,
      -0.2968465983867645,
      -0.017733929678797722,
      0.1774696707725525,
      -0.038136400282382965,
      0.08803705871105194,
      0.08198395371437073,
      0.19167067110538483,
      -0.1599973440170288,
      0.007503033149987459,
      0.03648880496621132,
      0.07323485612869263,
      0.021082252264022827,
      0.28857868909835815,
      -0.19791913032531738,
      -0.1626579612493515,
      -0.21358630061149597,
      0.1161927729845047,
      -0.2431521862745285,
      0.21305125951766968,
      0.08727283030748367,
      -0.1267581433057785,
      0.28688961267471313,
      0.16956743597984314,
      0.3014422357082367,
      0.3026564121246338,
      0.04401633143424988,
      0.2562813460826874,
      0.05001544952392578,
      0.09635702520608902,
      -0.0000745462384657003,
      0.026509257033467293,
      0.31318846344947815,
      -0.13379423320293427,
      -0.2910528779029846,
      0.10891597718000412,
      0.13924427330493927,
      -0.2608610689640045,
      0.17760270833969116,
      0.04259774833917618,
      -0.05447245389223099,
      0.11272428929805756,
      0.06929250061511993,
      0.22621409595012665,
      -0.20007868111133575,
      0.08656805008649826,
      -0.04141397401690483,
      0.04582833871245384,
      0.20311687886714935,
      0.259764701128006,
      -0.2177080661058426,
      0.21561846137046814,
      -0.23148351907730103,
      0.2988537847995758,
      0.09081973135471344,
      -0.18502113223075867,
      0.166110098361969,
      0.18007177114486694,
      0.15270467102527618,
      0.16713574528694153,
      -0.2381727695465088,
      0.2537785470485687,
      0.0373026579618454,
      0.03446921333670616,
      -0.08350090682506561,
      -0.1357576698064804,
      0.044754233211278915,
      0.28399232029914856,
      0.00006000922076054849,
      0.10817869007587433,
      -0.1351921409368515,
      0.2845856249332428,
      -0.29074856638908386,
      0.02971062809228897,
      0.004206892102956772,
      0.0784769356250763,
      0.2396179586648941,
      -0.25915974378585815,
      -0.04146353900432587,
      -0.24083048105239868,
      -0.18456827104091644,
      0.08132637292146683,
      -0.22080470621585846,
      0.29524797201156616,
      0.11032819747924805,
      0,
      0,
      0,
      0,
      0,
      0,
      0,
      0,
      0,
      0,
      0,
      0,
      0,
      0,
      0,
      0,
      0,
      0,
      0,
      0,
      0,
      0,
      0,
      0,
      0,
      0,
      0,
      0,
      0,
      0,
      0,
      0,
      0,
      0,
      0,
      0,
      0,
      0,
      0,
      0,
      0,
      0,
      0,
      0,
      0,
      0,
      0,
      0,
      0,
      0,
      0,
      0,
      0,
      0,
      0,
      0,
      0,
      0,
      0,
      0,
      0,
      0,
      0,
      0
    ],
    "b1": [
      0,
      0,
      0,
      0,
      0,
      0,
      0,
      0,
      0,
      0,
      0,
      0,
      0,
      0,
      0,
      0
    ],
    "W2": [
      -0.2727801501750946,
      0.32249099016189575,
      0.04933745041489601,
      0.20304930210113525,
      0.03376021981239319,
      -0.29410043358802795,
      -0.26470625400543213,
      0.26196110248565674,
      0.054385606199502945,
      -0.27278271317481995,
      0.30297279357910156,
      0.2503964900970459,
      0.013714605011045933,
      0.23490452766418457,
      0.02430475503206253,
      0.33837395906448364,
      0.31926292181015015,
      0.10599404573440552,
      -0.3056419789791107,
      -0.04804926738142967,
      -0.3117595613002777,
      0.09596795588731766,
      0.1480497419834137,
      0.2933695316314697,
      0.2218107134103775,
      0.1926746368408203,
      0.10071645677089691,
      0.11123598366975784,
      0.03661871328949928,
      0.32416924834251404,
      -0.2405225932598114,
      -0.3305943012237549,
      0.2021108865737915,
      0.012108846567571163,
      0.2727493941783905,
      -0.24423404037952423,
      -0.12406086176633835,
      -0.189822256565094,
      -0.13134853541851044,
      -0.28056392073631287,
      -0.33154189586639404,
      -0.23437896370887756,
      -0.2693711817264557,
      0.1159009262919426,
      0.2100829929113388,
      0.218235582113266,
      0.3084910213947296,
      0.16001945734024048,
      0.04261460155248642,
      -0.17865729331970215,
      0.05253369361162186,
      0.16261713206768036,
      -0.03915781527757645,
      -0.011820287443697453,
      0.2499089241027832,
      0.2112637758255005,
      -0.10569215565919876,
      -0.31192103028297424,
      0.02019619569182396,
      -0.032354868948459625,
      0.05173710733652115,
      0.04891994968056679,
      0.35213443636894226,
      -0.31903544068336487,
      -0.15735934674739838,
      0.21534976363182068,
      0.1778070032596588,
      -0.13483843207359314,
      0.28818419575691223,
      0.030169587582349777,
      0.1842595785856247,
      0.0929374247789383,
      0.25385093688964844,
      -0.172782301902771,
      -0.1662832349538803,
      -0.3423249125480652,
      0.3477216064929962,
      -0.17832887172698975,
      0.11039666086435318,
      0.20269045233726501,
      0.22070246934890747,
      0.34625139832496643,
      -0.060037221759557724,
      -0.0125732421875,
      -0.06945433467626572,
      0.11595594137907028,
      -0.13972686231136322,
      0.04257219657301903,
      -0.05517284944653511,
      -0.2197922021150589,
      -0.17119455337524414,
      0.21645088493824005,
      0.19167828559875488,
      -0.1866823136806488,
      0.1492242068052292,
      0.06136634200811386,
      0.15805745124816895,
      -0.3514025807380676,
      -0.17291013896465302,
      -0.11363628506660461,
      0.09080441296100616,
      0.18849419057369232,
      0.2765156924724579,
      0.3080805838108063,
      -0.0030370792374014854,
      -0.020924629643559456,
      -0.15106238424777985,
      0.22234651446342468,
      -0.319405198097229,
      0.262708842754364,
      0.18727843463420868,
      -0.3400704264640808,
      -0.305448442697525,
      -0.34867286682128906,
      0.33072975277900696,
      0.02446836419403553,
      -0.27308768033981323,
      0.3516341745853424,
      -0.07301343232393265,
      0.04425976052880287,
      0.31096160411834717,
      -0.032870709896087646,
      -0.14847324788570404,
      0.08848470449447632,
      -0.21777786314487457,
      -0.3528582751750946,
      0.02401319146156311,
      0.0980663076043129,
      -0.20396317541599274,
      0.1328762322664261,
      0.0455271415412426,
      -0.10734467953443527,
      -0.33804652094841003,
      -0.14634586870670319,
      -0.028163189068436623,
      0.18541301786899567,
      0.23302783071994781,
      0.21092236042022705,
      0.12889529764652252,
      -0.014389214105904102,
      0.08117175102233887,
      0.029856249690055847,
      -0.23935435712337494,
      -0.3191283047199249,
      0.10046844184398651,
      0.22603115439414978,
      0.13284146785736084,
      0.17577244341373444,
      0.3302413821220398,
      0.313435435295105,
      0.2156992405653,
      -0.045990124344825745,
      -0.16350157558918,
      -0.33042824268341064,
      0.11503199487924576,
      -0.11371318995952606,
      0.060546595603227615,
      -0.3203917443752289,
      0.02112716995179653,
      0.3270051181316376,
      0.1995358169078827,
      0.22989022731781006,
      0.2990771234035492,
      -0.031632158905267715,
      0.23052287101745605,
      -0.24575093388557434,
      0.03576618805527687,
      -0.26669251918792725,
      -0.21073998510837555,
      -0.2719596028327942,
      0.02077626995742321,
      0.31619253754615784,
      -0.32353460788726807,
      -0.16762199997901917,
      0.0517939031124115,
      -0.16529013216495514,
      0.21318687498569489,
      -0.11370914429426193,
      -0.27623891830444336,
      -0.3526887595653534,
      0.03603614494204521,
      0.0725710466504097,
      0.01697384938597679,
      -0.30266880989074707,
      -0.19304712116718292,
      0.3522440195083618,
      0.3476823568344116,
      0.2769993245601654,
      -0.06741310656070709,
      0.13937030732631683,
      0.06365791708230972,
      -0.2958182394504547,
      -0.050061289221048355,
      0.19177064299583435,
      0.10894083976745605,
      0.20888127386569977,
      0.34060806035995483,
      -0.34234464168548584,
      0.051652878522872925,
      -0.14493127167224884,
      -0.06539802253246307,
      -0.22030824422836304,
      -0.012330137193202972,
      0.11899124085903168,
      -0.08089976757764816,
      -0.22813108563423157,
      0.03916454315185547,
      0.23201590776443481,
      0.18850861489772797,
      0.2597810924053192,
      0.2433011680841446,
      -0.2225741147994995,
      0.11185797303915024,
      0.15324260294437408,
      0.2676060199737549,
      0.09466437250375748,
      -0.29307231307029724,
      -0.13301873207092285,
      -0.020471589639782906,
      0.1710459291934967,
      0.21567629277706146,
      -0.05969569832086563,
      -0.04683676362037659,
      -0.15170584619045258,
      -0.28319549560546875,
      -0.16024450957775116,
      -0.24133121967315674,
      0.013517408631742,
      0.09414912760257721,
      -0.21576032042503357,
      -0.16513463854789734,
      0.2276131510734558,
      0.13708359003067017,
      0.1235852986574173,
      0.19435474276542664,
      0.07772181183099747,
      -0.06954188644886017,
      0.04936068877577782,
      -0.006121545098721981,
      0.11052661389112473,
      0.1490897536277771,
      -0.28514355421066284,
      0.05808998644351959,
      -0.20581424236297607,
      -0.1524209827184677,
      0.11842842400074005,
      0.015090443193912506,
      0.03295498713850975,
      0.04854009672999382,
      0.23091952502727509,
      0.26363030076026917,
      0.2576659023761749,
      0.10301219671964645,
      0.21704384684562683,
      0.0767737329006195,
      0.09099172055721283
    ],
    "b2": [
      0.008644319139420986,
      0.012822062708437443,
      0.03710271418094635,
      -0.01155454944819212,
      0.06592781841754913,
      0.012353223748505116,
      0.028292672708630562,
      0.02101907692849636,
      -0.0005720542976632714,
      0.003993147984147072,
      -0.01307500060647726,
      0.005923014599829912,
      0.018573813140392303,
      0.0026728096418082714,
      0.010657082311809063,
      0.023942092433571815
    ]
  },
  "baselineCurve": [
    0.388258,
    0.388258,
    0.388258,
    0.388258,
    0.388258
  ],
  "trainedCurve": [
    0.375521,
    0.37584,
    0.375854,
    0.375854
  ],
  "metadata": {
    "latentDim": 16,
    "condDim": 4,
    "corpusEpisodes": 30,
    "totalSteps": 1361,
    "timestamp": "2026-05-20T21:19:04.922Z"
  }
}